digraph Tree {
node [shape=box, style="filled, rounded", color="black", fontname="helvetica"] ;
edge [fontname="helvetica"] ;
0 [label="age <= 21.5\ngini = 0.771\nsamples = 23\nvalue = [8, 4, 4, 3, 4]\nclass = 💀", fillcolor="#fae4d5"] ;
1 [label="age <= 19.5\ngini = 0.198\nsamples = 9\nvalue = [8, 1, 0, 0, 0]\nclass = 💀", fillcolor="#e89152"] ;
0 -> 1 [labeldistance=2.5, labelangle=45, headlabel="True"] ;
2 [label="gini = 0.0\nsamples = 7\nvalue = [7, 0, 0, 0, 0]\nclass = 💀", fillcolor="#e58139"] ;
1 -> 2 ;
3 [label="gender <= 0.5\ngini = 0.5\nsamples = 2\nvalue = [1, 1, 0, 0, 0]\nclass = 💀", fillcolor="#ffffff"] ;
1 -> 3 ;
4 [label="gini = 0.0\nsamples = 1\nvalue = [0, 1, 0, 0, 0]\nclass = 😂", fillcolor="#7be539"] ;
3 -> 4 ;
5 [label="gini = 0.0\nsamples = 1\nvalue = [1, 0, 0, 0, 0]\nclass = 💀", fillcolor="#e58139"] ;
3 -> 5 ;
6 [label="age <= 29.5\ngini = 0.745\nsamples = 14\nvalue = [0, 3, 4, 3, 4]\nclass = 😎", fillcolor="#ffffff"] ;
0 -> 6 [labeldistance=2.5, labelangle=-45, headlabel="False"] ;
7 [label="gender <= 0.5\ngini = 0.49\nsamples = 7\nvalue = [0, 3, 0, 0, 4]\nclass = 🥰", fillcolor="#f8ceef"] ;
6 -> 7 ;
8 [label="gini = 0.0\nsamples = 3\nvalue = [0, 3, 0, 0, 0]\nclass = 😂", fillcolor="#7be539"] ;
7 -> 8 ;
9 [label="gini = 0.0\nsamples = 4\nvalue = [0, 0, 0, 0, 4]\nclass = 🥰", fillcolor="#e539c0"] ;
7 -> 9 ;
10 [label="age <= 30.5\ngini = 0.49\nsamples = 7\nvalue = [0, 0, 4, 3, 0]\nclass = 😎", fillcolor="#cef8f0"] ;
6 -> 10 ;
11 [label="gini = 0.0\nsamples = 2\nvalue = [0, 0, 0, 2, 0]\nclass = 🙂", fillcolor="#3c39e5"] ;
10 -> 11 ;
12 [label="age <= 33.5\ngini = 0.32\nsamples = 5\nvalue = [0, 0, 4, 1, 0]\nclass = 😎", fillcolor="#6aecd4"] ;
10 -> 12 ;
13 [label="gini = 0.0\nsamples = 2\nvalue = [0, 0, 2, 0, 0]\nclass = 😎", fillcolor="#39e5c5"] ;
12 -> 13 ;
14 [label="age <= 34.5\ngini = 0.444\nsamples = 3\nvalue = [0, 0, 2, 1, 0]\nclass = 😎", fillcolor="#9cf2e2"] ;
12 -> 14 ;
15 [label="gini = 0.0\nsamples = 1\nvalue = [0, 0, 0, 1, 0]\nclass = 🙂", fillcolor="#3c39e5"] ;
14 -> 15 ;
16 [label="gini = 0.0\nsamples = 2\nvalue = [0, 0, 2, 0, 0]\nclass = 😎", fillcolor="#39e5c5"] ;
14 -> 16 ;
}